9 100
t 0.00046752839 -0.0030729584 -0.003366679 -0.003814271 0.0013730963 0.0028593345 -0.00020204659 0.0018064149 -0.00084751326 -0.0047543296 -0.0021998081 0.0024388812 0.001773952 -0.0005433262 -0.0031277367 -0.0043428373 -0.0012497696 0.0036171023 -0.0015251858 -0.0017916244 0.0009790253 -0.0019053727 -0.0033976499 0.0025337602 0.0004160603 0.0015936618 0.0033857436 -0.004502879 0.002331769 -0.003928081 0.0029681597 0.0043978062 -0.0023284832 -0.0006892561 -0.0013348266 0.0029029753 -0.0001291454 0.0021689117 0.0021309648 0.0017194012 -0.0030815362 -0.0005397925 -0.0029619753 0.0005914913 -0.0025039264 0.0013385204 -0.0038781264 0.0027443422 -0.0046703415 0.0035255095 0.00086930883 0.00085766485 0.00056289986 0.0018381587 0.0015570276 -0.0014554186 -0.00063423626 0.00040740494 0.00029298497 -0.0034364979 -0.0006229174 0.0003299026 -0.004189067 -0.004463443 -0.00460898 -0.0011353452 -0.00066230027 0.0002809817 0.0020766186 0.0027578834 -0.00046248574 -0.0021139241 0.0040193885 -0.0043305424 0.0013210159 0.0031269975 0.002698995 -0.00049863785 0.0031072707 0.00233123 -0.0026722897 0.0040417616 0.003232198 -0.0035012176 -0.0015461093 0.0048151137 -0.0011231703 0.0020111608 -0.0044391057 0.00046029867 -0.003968951 0.0028666437 0.0036528131 0.0043881065 0.0005447001 0.0006950845 0.0036247543 0.0033090054 -0.0040317667 -0.002782142
c 0.00010452036 0.0022310107 0.0010709042 -0.0046872743 0.00049953803 -0.0021438156 0.0035266844 -0.004108029 -9.692112e-05 0.002878568 0.0044654002 -5.3941843e-05 -0.0026043577 0.0020250832 0.0043543093 0.004733419 7.1871036e-05 -0.0018676573 -0.0002768301 0.00079064246 0.00031934143 0.0018283242 0.0014909867 -0.0045228805 -0.0034925686 0.0018422484 0.0029784292 -0.0014852555 0.0004841348 0.0009705142 -0.00023630238 -0.0043227836 -0.0014483233 -0.0021199642 -0.00398833 0.0011907524 -0.0008786213 0.002852081 -0.0022465605 -0.00026824902 -0.003397106 0.0021196636 -0.0028029827 -0.0010580327 0.0032465612 0.0018914898 -0.000665475 0.00036005746 -0.00096412376 -0.00070066 -0.004351719 -0.0028510904 0.0036798907 0.00064348406 0.0008190395 -0.0008443583 0.004059611 0.002170834 -0.004188323 -0.004281601 0.00018622584 -0.00033424268 0.0028190552 0.0014442197 -0.00092217384 -0.003800574 -0.0043008383 -0.004425044 -0.0011920389 -0.0007131554 0.0013622079 0.00095873355 1.4944191e-05 0.00069976546 0.00016303876 0.0009483361 0.0020010835 -0.004971774 -0.004837786 -0.00077005435 0.0005031482 0.0032722922 0.0024226145 0.0037990687 -6.0375005e-05 -0.0017103835 -0.004788781 0.00023467874 -0.00050538994 -0.002222979 -0.0033186954 0.00029374103 0.0036002388 -0.0041084685 -0.00018952644 -0.0019550186 -0.0024338935 -0.0016001816 -0.002073581 0.0025863117
o 0.0012065538 -0.0018219491 -0.004326834 -0.0034288575 0.0034361868 -0.00103919 -0.0002101527 -0.0043899296 0.0031748784 0.00044919713 0.001587907 0.0013555762 0.0012126303 0.0012740175 0.003060967 0.0013364634 -0.0019969426 0.0024951096 -0.00410433 -0.0046201204 0.00089847867 0.0045810803 0.0038915174 -0.0016815222 0.0013687658 0.0033621257 0.0012845531 -0.00028653233 0.00081525586 0.0021893322 0.003515299 0.0006886859 -0.0011481212 0.002290217 0.0013422462 0.0032424014 -0.0033103304 -0.0008098239 -0.0011831371 -0.0010280774 7.9693615e-05 0.0023016515 0.001634399 -0.0019196944 -0.0022141861 -0.00051378337 0.002962012 0.0023549567 -0.0006477595 0.004259681 0.00072334305 0.004465958 -0.00016075622 -0.001983834 0.0024625137 -0.004886249 -0.0012577862 -0.0034947593 0.0034750688 -0.004737123 -0.0009045078 0.0035485802 0.0010639961 -0.003779737 -0.0027858256 -0.00054386933 0.0020556527 -0.000396233 0.00049327954 -0.0020056579 -0.0004257858 0.002526757 -0.0012132206 0.0040262947 0.0046905465 -0.003960532 -0.0033719132 -0.0020644185 -0.0027597274 -0.00095268036 0.0028232802 -0.00090026075 -0.00038172855 0.0042227553 0.0045349183 -0.000295673 -0.0022254754 -0.001226174 0.0030416911 -0.0014420716 0.0016545912 -0.00045089226 0.003383267 -0.00016330865 -0.0016268276 -0.0035145462 0.004716413 0.0029870025 0.0023172756 0.0022575364
r -0.002757158 -0.0025734305 0.0027923295 -0.0042863907 -0.0017944115 0.0011481966 0.00051214773 -0.00030851358 0.0043707094 0.004128678 0.0036996768 0.0026067942 -0.0014963772 0.0019806193 0.0049543586 -0.0033202653 0.004293859 0.0045039696 -0.0041960543 0.004386182 -0.0030226929 -5.0993855e-05 -0.0041324547 0.0033778877 -0.0017698029 -0.0037857685 -0.0035631598 0.0038519679 -0.004843736 -0.0012488001 -0.0039553777 -0.00318835 0.0028100146 0.004469201 0.0027966867 -0.003592099 0.0033763987 0.0036731258 0.0045547425 0.00063050777 -0.0026975002 -0.0012395567 -0.0016366577 0.0019083956 -0.0022872172 -0.0025266912 -0.00020653362 -5.1451305e-05 -0.00033203594 -0.0007373904 0.001538636 0.002866004 0.003179835 0.0032026505 0.004237448 -0.003795885 -0.004218178 -0.0011843863 0.0036346298 -0.00337763 -0.0042608376 -0.00016258532 -0.0004173959 -0.0030527865 -0.00022074382 -0.0013432392 0.004934536 1.4199711e-05 0.0038913286 0.0014789328 -0.0037770518 0.0039036348 0.0023307563 -0.002223097 -0.0023829148 0.0016458168 0.0046161544 -0.001981561 -0.0030157275 0.0018318166 0.00057252473 0.00086505176 -0.0031660243 0.0036413823 -0.0047822935 -0.0020944823 -0.001409874 0.0024890478 -0.00034796313 0.0001859003 0.0011529521 -0.0048721796 -0.001040276 -0.0010163788 -0.0026687714 0.0022176255 0.0020355557 0.0043991283 0.00046445976 -0.0002762418
p 0.00021286179 0.0002325739 -0.0027010222 -0.0021133008 -0.0005324138 0.002017205 -0.0007306806 0.0049415897 0.0046722973 -0.0031839865 -0.0049520964 0.0009816246 0.0014945478 0.004209519 -0.0023240128 0.0026962408 -0.0014277197 -0.0014879328 0.0026663216 0.0044711796 -4.869747e-05 0.0019794463 0.003922864 -0.0034027812 -0.001464364 0.0031016637 0.0042153676 -0.0003743017 -9.340698e-05 0.004385063 -0.0046666553 0.0005622247 -0.00438903 -0.002375083 0.0035356167 0.0021724864 0.0015530757 0.0041858424 -0.003743518 -0.001426365 0.0016489946 0.0029972035 0.004107996 0.0027010937 -0.0033332668 -0.0031124004 0.0029738953 0.0005285244 0.0029305643 0.00118179 -0.0038449161 -0.0009556955 -0.0011567636 0.0018726528 -0.0012765548 -0.003553132 0.0008395818 0.0031588248 0.002660567 -0.00065423717 0.0021260488 0.0038945738 -0.0010117412 -0.0012822219 0.003996203 -0.00091920723 0.0029214637 -0.001716236 -0.0042100362 -0.0049598487 -0.0018380882 0.00096297887 -0.0002908126 0.0018523925 0.0031052555 -0.0022813194 -0.001824383 -0.0005670443 -0.00272262 0.002999037 -0.0021598355 0.002291456 -0.0036793195 0.00080140826 -0.004657793 -0.0007103003 -0.003250993 -0.004871679 0.00018958784 0.0042367685 0.00059492193 -0.00032961002 0.0030384907 0.0043824413 0.00089873996 -0.00038544266 -0.0045275646 0.003002837 -0.0016064276 -0.0011667204
u 0.0024384032 0.00341238 -0.0040607178 0.0015413292 -0.0005135963 0.0013563863 0.002202617 0.00029459092 0.0007454402 0.0011483545 -0.0006886902 -0.0044064433 0.003081353 0.0020297074 0.0023704201 -0.00186177 0.0035549076 0.0046457895 0.002981569 0.00028166006 0.003684568 -0.0027889528 -0.0045915768 -0.0015746314 0.0033351965 -0.0044667237 -0.00071367895 0.004767341 9.285641e-06 0.003940017 -0.0041097077 -0.0023025197 0.0022144618 -0.0038837565 -0.004469314 -0.0019523524 0.0018714714 0.004688157 -0.0012116326 -9.797297e-05 0.0017789716 -0.0035176282 -0.0013885518 0.0014053893 -0.0027159406 -0.004841877 -0.0009368291 -0.0016142261 0.0044270842 0.00431842 0.0009774789 -0.00393731 -0.0014451707 -0.0002940077 0.0027105699 0.0010006247 0.003569944 -0.0017296774 0.0017691244 0.0023384925 0.0021240711 -0.0015491688 -0.0049437275 -0.0035804012 -0.0034753105 -0.0014752756 -0.0023597537 0.0014998991 -0.00033343525 -0.0027539458 0.004274916 0.0010815607 -0.0031557782 -0.004748217 0.0017351779 0.004702503 -9.0650516e-05 0.0005032183 0.002892803 0.0011804979 0.0046572504 0.0010973469 -0.0033490444 0.00023177762 0.004045008 -0.0007676952 0.0037688315 -0.00042461877 0.0037535906 0.0031754202 -0.0010402794 -0.004730194 -0.0003041535 -0.00086554023 -0.00044953416 -0.0024331084 0.004192697 0.0033432492 0.0024810748 0.0022164052
s 0.0038725229 0.0035073876 0.0026211697 0.00260972 -0.00060490356 0.00096483267 -0.0031251516 0.0040095854 -0.0016979728 -0.0044592 -0.00030070884 -0.0008249864 0.00014022857 -0.0043464694 -0.0017642893 0.0023399997 -0.004318998 0.003406061 -0.0020016287 0.0019377951 -0.00091728766 0.004570798 0.002852845 -0.0039306465 0.00038452327 0.0019631698 -0.0011694365 0.0011148173 0.0045913383 0.0006491321 0.0014050321 -0.003857983 2.2625445e-05 0.0030273467 0.003979732 -4.7457972e-05 0.0006697861 0.0018001591 0.0013216566 -0.004035859 0.003093242 0.0016124235 -0.00034024857 0.0033423004 0.0027600296 -0.0045066616 0.003600378 -0.0004916584 0.0030342308 0.0035480873 0.0005007374 0.0035742521 0.004026696 -0.0024016064 -0.00094243017 -0.0046057026 0.0030224172 0.0026244533 0.0007705857 0.002339617 0.0021748808 0.0016112268 0.00046901507 0.0025686186 -0.0020909302 -0.0033680426 -0.0017062193 -0.00055995194 -0.0019773229 0.0048636682 0.0033824595 0.00068307744 -0.0045517264 -0.004145826 -0.0033263676 -0.002123123 -0.0049953577 0.0049329503 0.002640557 -0.0006767708 0.00013061192 -0.001866449 -0.0041203448 -0.0046243803 0.00450533 -0.0017339517 -0.0042432332 -5.798191e-05 -0.0044716527 -0.0024842268 0.004281011 -0.0012402757 0.0034101382 0.004940816 0.0037420706 -0.0023129499 0.0039496287 0.004119912 -0.0026390736 0.003891022
. 0.0048802025 0.0039763 -0.0036353152 -0.0044769654 -0.00044692686 -0.0004700417 0.0024464394 0.0049331915 0.0012218794 0.00401891 -0.00029088804 4.2658718e-05 -0.00067458686 -0.0014439581 -0.00033755312 0.0026557199 0.0029445665 -0.0019253326 0.00058898807 -0.0035158806 -0.004561038 -0.004485305 0.00483176 0.0036204099 0.0020954045 -0.00029654294 0.0017833958 0.003151334 -0.00077877316 0.0014489183 -0.0003557288 0.0010106321 0.004200453 -7.933303e-05 0.0038481518 -0.00040796405 0.0038385491 0.0004201879 -0.0028573764 0.00055663614 0.00031393048 0.00016276624 0.0039612507 0.000980749 -0.0014723527 0.000871365 0.0015338946 0.00447837 0.0046901978 0.0046461993 0.0024918946 0.0028332865 -0.0017379748 0.0034544226 0.0026084753 0.004512763 -0.0021097772 -0.0002046835 -0.004239549 -0.0008515092 -0.00133645 0.0026359183 -0.0029032782 0.0034551618 -0.0043151407 -0.0018508591 -0.0008875682 -0.0003857048 0.0019751103 0.003289826 -0.00086098054 -0.004667747 -0.00022231117 -0.003935478 -0.004288981 -0.0002758325 -0.0016595838 0.0023286226 0.0005679359 -0.0007945197 -0.0005289958 -0.0027041263 0.002780545 -0.0019314488 -0.0029601706 -0.0032023492 -0.0017158623 -0.0029024794 0.0019349576 -0.00214427 0.0022175757 -0.0030064366 0.004575764 -0.0045384686 -0.0011476114 -0.0022189945 0.0037810795 -0.002021761 -4.302809e-06 0.0005805048
x -0.00417414 -0.0035708582 0.001182848 -0.0043550483 -0.0031749601 0.001441023 0.0013557388 0.0032280644 -0.004376114 0.0012495137 -0.0010544355 -0.0015646844 7.438359e-05 0.0007410911 -0.0034079151 -0.004890891 -0.0011030767 -0.0014839564 0.0048445663 -0.0030857997 0.0016072021 0.0015024404 -0.00015938331 0.0026175936 -0.0029391313 0.0015763817 -0.0018574179 -0.0028786873 -0.0028633487 0.0038941067 0.0011815525 0.0025915978 0.0043772873 -0.003966581 -0.00052246876 0.0015305402 -0.0015727822 0.000117466654 -0.0009823116 0.0018578187 -0.0039714263 0.001084158 0.00037626654 -0.003893806 0.0025786553 0.0025922472 -0.0040680896 -0.0010532956 -0.0004049944 0.0048222425 -0.0032552304 -0.00095812965 -0.0047112606 0.0037655279 0.0030553562 0.0025892593 0.0024457248 -0.0021218366 -0.0011108507 0.0031916897 -0.0027784863 -0.0020969645 0.0034751643 0.0026925686 0.003251918 -0.0015292453 0.004504835 -0.003936338 -0.003033813 -0.0035213558 -0.0038312008 -0.0005322857 -0.0017775589 0.0011398154 -0.004622375 -0.00307235 -0.0014526851 -0.0011535579 -0.00240826 0.004016578 -0.003975102 -0.0016717687 0.00019963984 -0.0045113317 -0.0016402425 -0.0021802054 0.0001996068 -0.0027830105 0.0028429327 0.0037797126 0.0036442522 -0.00010250041 0.00060753204 0.0008267686 0.0001532676 0.0025285485 0.0036268302 0.002311917 -0.00045333552 0.0035807285
