13 100
t -0.0033000265 -0.0027258336 0.0020802915 -0.0030750013 0.003129269 0.004800147 0.003715737 0.0009171084 -0.00080853584 0.0040398664 -0.004661285 0.0041206954 -0.0014414117 0.0033318843 0.0006593125 -0.0025649085 0.0029521391 0.004997095 -0.0036665415 -0.0026486758 0.002518813 0.0017828597 -0.00031720425 0.0025854856 -0.0032253403 0.0023334774 -0.0017139134 0.0026530323 -0.0033439377 -0.0014675313 0.0036591252 -0.0041391402 -0.004732409 0.0027610203 0.0010781644 -5.7533554e-05 0.0044549434 0.001497254 -0.0034940238 0.0035521449 0.004995533 0.0009903577 0.0042248676 0.004158938 0.0004391244 -0.0012639671 -0.0034162942 -0.0038064786 0.0043740366 0.0005248251 -0.0021604458 0.0043741274 -0.0045281956 -0.00085152156 -0.0002749708 -0.0011273329 -0.0038459278 0.0011187836 0.00428747 0.0016901771 0.004887191 0.004664062 0.0010668356 0.00014159827 -0.003324918 0.0019534843 0.0047809663 -0.0038366178 0.0027163962 0.0041277236 0.0026396608 -0.0022396976 0.0035847696 0.0021484112 -0.004001881 0.003127715 0.00244383 0.0022723787 -0.0038358865 -0.0023705228 -0.004342867 -0.0010148643 -0.002680635 -0.0018984808 0.0033451268 0.0019544 -0.0011176248 -0.0012428592 0.0019438027 -0.0013604028 0.0002679561 -0.0032000022 -0.0014166004 0.003467614 -0.0033668256 0.0015478071 0.0007437421 0.004099102 0.0038899255 -0.002433823
n 0.00061164284 0.0029154713 -0.0030012592 0.0042746426 -0.0030274484 -0.003950575 -0.0036392845 -0.004466598 -0.002596431 0.0020412204 0.0030137927 0.0011438332 0.0032828648 0.0030819995 0.00094554044 -0.000514943 -0.0031335559 0.0010894396 -0.00211133 -0.0004281003 0.004355196 -0.001548495 0.0029087765 0.0013543341 -0.003907079 -0.002288499 0.001746298 3.2129577e-05 0.004489839 0.0016974264 0.0014045737 -0.0031594122 -0.003926685 -0.0031937168 0.0024660819 -0.0034447724 -0.004535204 0.00040920288 0.0030567262 0.0044603273 -0.0003024568 0.001300818 -0.0048604147 0.0009435632 -0.0027391838 0.003782012 -0.0013109045 -0.00041589688 -0.002333442 -0.001186386 0.0020966385 0.0045423587 -0.0016510688 -0.00016684245 0.00077363057 -0.0034659375 0.003967089 0.00067440426 -0.00147482 0.0016788123 0.00083750905 -0.0017639314 0.0015890461 0.00433415 -0.0013111524 -0.0018795106 0.0003993549 0.004838026 -0.0006956775 0.00025020973 -0.00499217 0.00016708089 0.0033337465 0.0018063491 0.00094185426 -0.0027291838 0.004049872 0.0018325587 -0.0026683193 -0.0029689583 0.0025919604 -0.0021363602 0.00063471484 -0.0012320742 -0.0015364551 0.004350154 0.0017003891 -0.0016532463 -0.00089125324 -0.0049728844 -0.0041070357 0.0009819723 0.0038154733 -0.0047249896 0.0032879743 -0.0031369883 -0.0034582196 0.0015488033 -0.0006492303 0.00012886687
e -0.0007762676 0.0033811633 0.0021710133 -0.0013391337 -0.0015863096 0.002403197 -0.0029709393 -0.00039432102 0.0019125391 -0.0022732008 0.0004911928 0.00083599344 0.0015844243 -0.0012900159 -0.000845457 -0.0010300482 0.0032023112 -0.0020643235 -0.0013740372 0.0026902647 0.0046945647 0.002661559 0.004207663 -0.0008598958 0.0012974618 0.0027981075 0.0012700774 -0.00471148 0.003883866 0.0030536905 0.0012254795 0.0038641493 0.0016815469 0.00031875802 -0.00022862223 -0.0035985066 0.0026414096 0.0037601118 -0.0015743579 -0.0043441476 0.0009264272 -0.0039012718 -0.0020375017 8.334219e-05 0.0039406694 0.0035661005 0.0044893175 -0.0023177667 -0.0014510192 -0.0008362073 0.0035062556 0.0038901602 0.0049432786 -0.0011380898 0.0026306286 -0.0008287435 0.0015789099 -0.0019307971 0.0041978913 -0.0006519493 0.0011303093 -0.0011661007 -0.0006621025 0.0037167307 -0.0047854143 -0.0044388087 0.0017060594 -0.00064634177 0.0045028445 -0.00042608197 0.002612606 -0.0045150137 0.004732985 0.003460826 0.004191684 -0.004629215 0.00079329597 0.0042651054 -0.0044324715 -0.0045493743 0.0030399216 -0.0027197646 -0.004867663 0.0036726848 -0.003508509 0.0025555738 0.002403021 0.0005458737 0.0019994818 -0.0024435422 -0.0030725456 -0.002794958 0.0034404646 0.00033587083 -0.002231701 -0.0028976866 -0.0036975911 -0.002722146 -0.0017599667 -0.004702258
w -0.0016655385 -0.0047623175 0.0033347781 -0.002972668 0.0027258715 -0.00123236 0.0010520861 0.00040685557 -0.00077299896 -0.0004042169 0.0028264232 0.0030939619 -0.0028452429 -0.0005825325 -0.0016021461 -0.0048415456 0.0027263083 -0.0039743823 -0.0047294875 -0.00049908285 -0.003148473 -0.001245037 0.0004720769 -0.0017598801 0.0033838523 0.0032840036 -0.004525994 -9.0059315e-05 0.0041221846 -0.0014928813 0.0038601987 -0.00385085 0.0013831264 0.0046333787 0.0018596689 -7.2334995e-05 -0.000876906 -0.0030121116 0.0017053102 0.0004004271 0.0016804921 -0.0045819688 0.0025727027 -0.004736368 0.00088869216 -0.003100598 0.001496094 0.004931564 0.0021915615 -0.002808969 0.0002562587 0.00063568325 0.0049152877 0.004994831 -0.0040321033 -0.0019898864 -0.0011666626 -0.0016373033 0.004030822 0.00088779896 0.0015433629 0.0019354717 -0.0031124586 0.003490764 0.0022867029 -0.0025303338 -0.0047305543 0.0016439898 -0.0045840326 0.0034740013 -0.0032387667 0.00018115115 -0.0019215939 0.0017743795 0.004769367 -0.002824376 -0.0010867456 0.00020595478 0.0027549763 -0.0036248853 -0.0034374394 0.0033073898 0.0007191804 -0.00088380935 0.002364963 0.004720147 -0.0029680606 -4.478619e-05 -0.004523871 0.0009441809 -0.00026341458 0.002486034 -0.0036889734 -0.004713367 0.0031015745 -0.0044710874 -0.0028748792 0.0014868343 -0.0013157693 -0.0044303425
_ 0.0030467175 0.0048469505 0.0035907668 0.0010020128 0.0038053312 0.003303161 0.0011924143 0.0040966575 0.0031521525 0.0030048562 0.00046978635 0.00027460634 0.001995393 -0.0013431131 -0.0031372313 0.0012472041 0.00054146856 -0.0021170685 0.003490265 0.0024899521 0.00089188234 0.0024347156 -0.0017421326 0.0045743943 0.0031277682 0.004331465 -0.0011461684 -0.0037809166 0.0030569213 -0.0015541442 -3.249958e-05 0.004959186 0.002360271 0.0029227438 0.0032115073 0.0019576268 0.0031704265 0.004929239 0.0028098477 -0.0012248855 -0.004061029 0.004461699 -0.0032736093 -0.0030626457 0.0018679891 0.0026711882 -0.0033388308 -0.0003339123 -0.00036253658 -0.00045152538 -2.4529982e-05 0.0037022019 -0.0026844284 -0.00078203116 -0.0009554626 -0.00050475856 0.0033747167 0.0019292131 -0.0009873465 -0.0029333842 0.003713005 0.001352893 -0.0020060632 0.0025076184 -0.0026123882 0.0038825036 -0.0048318566 -0.0003409888 -0.002296386 0.0019908655 -0.0031810594 -8.1569415e-05 -0.004101015 0.003207775 -0.000277702 0.00032625126 -0.0029778266 0.00080777763 -0.0005773893 0.0046605906 -0.0042040953 7.059625e-05 0.002148325 0.00025760903 0.003999193 -0.0030818824 -0.001331286 -0.003207494 -0.0011263184 0.0007533021 -0.0038569167 0.0031523935 -0.0020288927 0.0020150866 -0.0014319232 -0.004676342 -0.0010980177 -0.0031009582 -0.00059580803 0.0029594712
c 0.00064963545 6.333196e-05 -0.0015354946 -0.004307852 -0.004725589 0.0044835275 0.00057058816 0.004259673 0.002751936 0.0022427817 -0.0033350596 4.877336e-05 0.0006883694 0.0005944151 0.0014393486 0.004850859 -0.0011876941 0.0020179555 0.0016715359 0.002374433 8.289209e-06 -0.0009187893 -0.0010073301 0.0038998525 0.003536309 -0.0024395953 0.0022577932 -0.0043223277 0.0029597222 -0.0034075377 -0.0014259529 0.000633327 0.0046516396 0.0017739701 -0.00065293483 0.0011172236 0.0020477108 0.000454707 0.004147696 -0.0019715487 0.0029459288 -0.0048998063 -0.0027712022 0.0037694434 -0.004372078 -0.0031326092 0.00059787196 -0.0024930204 -0.0037482413 -0.0043608793 0.0041700415 -0.00083411107 -0.0027055517 0.0017468309 0.0043986714 -0.0017844387 0.003529601 -0.0035677333 0.0047742906 0.0014109958 0.0020120342 0.001290496 0.0009202139 0.0046921 -0.0016511356 -0.0023725918 -0.0022061316 0.0008521798 0.004727232 0.0017300101 -0.0037191368 0.002010691 0.000705752 0.004186275 0.0037524009 -0.004105633 -0.002062157 -0.0031471248 -0.0032889445 -0.0047412077 0.0027205648 -0.004789894 -0.0017426709 0.000415838 -0.0025673904 -0.0030674858 -0.0029814972 0.00030483116 -0.0031695797 -0.0037836435 -0.00037389083 0.00494433 -0.0022465452 -0.0029977504 0.00053743826 0.0027627028 0.0012237573 0.0043990514 0.0016540107 0.0037885653
o -0.003740345 -2.6012076e-05 -0.0007578366 0.002823136 0.0027749639 -0.0030507369 -0.003135631 0.00012358406 0.000792587 0.00044240608 -0.0012056271 -0.0038365768 0.0033011476 0.0012477465 0.0004968215 0.002542529 -0.0010956739 0.0047017583 -0.0007130441 -0.000354496 -0.0014018534 -0.0043862127 0.003603088 0.0040760916 0.0006713729 -0.002050162 -0.0018351881 0.0022316216 0.0014381076 -0.0024759604 -0.0012549013 -0.003720762 0.0016285022 0.0023588263 0.0029865059 0.0006903696 8.523356e-05 -0.00467261 0.0042194463 -0.0033039225 0.002148691 0.003148538 -0.0028093376 0.0021786583 -0.0018739131 0.0010496926 0.0018700286 -0.003071318 0.00026883293 -0.0025675183 -0.0022290093 -0.0038826002 -2.0512472e-05 -0.0018216827 0.0019813324 0.004080339 -0.00048665635 -0.0039063552 -0.0033905634 -0.003784058 0.0026497978 -0.0033103556 0.00028524717 -0.0018753229 0.0029485573 0.0008305449 0.0005386007 -0.004951041 -0.0020721522 0.0013926205 0.0025298668 0.0007706418 -0.0016120699 0.0025986065 0.0027951978 -0.004214371 0.0015723452 0.004919639 -0.0024342118 0.0024981566 0.0031000427 -0.0047688037 0.00075117126 -0.004640929 0.003547313 -0.0037113705 -0.0015020792 0.00057946244 -0.0028802378 -0.0034523732 -0.004623192 -0.0044202744 0.0041180253 0.0036055215 0.0015537557 -0.0027049112 0.0022913755 -0.00048844976 0.004869207 0.0021274749
r -0.0045522647 -0.0017229988 -0.0043914216 0.004518381 0.0012300357 0.0003471931 0.003090036 0.004424844 -0.0048934775 -0.0029189384 -0.0023356858 -0.0029843303 0.0031783993 0.00091962283 -0.0023656627 0.0030286447 0.0024579393 0.00337939 0.001661678 -0.001209556 0.002622439 0.0041125375 -0.0007653608 -0.0038797813 -0.0017712351 0.0049860543 0.00088511145 -0.002889934 -0.0017719812 -0.003364633 -0.0018088203 -0.00083495246 -0.0023093899 0.0044119125 0.0048120935 0.00051250175 -0.0015520746 -0.0041766795 -0.0042627673 0.0030011933 -0.004478197 0.00057883025 0.0030931244 -0.0032899072 0.004646141 -0.0041438844 0.00023480931 -0.003544068 -0.00051463605 -0.0016594025 0.0030317265 -0.0020289326 0.0019064241 -0.0020072642 -0.0036567312 0.0021607832 0.00051056634 -0.0026792497 -0.004367593 -0.0023408579 0.0028386503 0.004986087 0.0019862216 0.00408378 0.0011987747 -0.00027028838 -0.0039274325 -0.00055220944 0.0021491826 0.002986498 0.004764192 0.0023934857 -0.0042819525 -0.002854063 -0.004430637 -0.0014256993 0.0017122468 0.0034053808 0.00049355277 -0.0017774693 -0.0022848926 -0.002090355 -0.0021260036 0.0009863292 -0.0048328782 -0.003531711 -0.0015788012 -0.00334735 -0.003869826 0.00019380647 0.002534665 -0.0036169998 -0.0006375947 0.002319992 0.0043021794 0.0010396359 0.0025807696 0.0024946097 -0.0018755908 0.0001196973
p -0.003619234 0.0042497558 -0.0022308182 0.0047138166 -0.0006580911 -0.0019119183 0.0023063784 -0.0047270325 -0.0033202195 0.004577413 0.0031889623 -0.004930069 0.00030347556 0.0030744388 -0.0014107967 3.6501162e-05 -0.0011099146 0.0033137563 0.0021770266 -0.0015317791 -0.002528936 -0.0040526506 0.003698138 0.0035922164 -0.0022703481 0.0007061776 -0.0035941163 -0.0031042637 0.0002075642 -0.0028405273 0.0017794343 -0.003124439 -0.0036924933 0.002615476 -0.00039246507 0.0027392127 0.0023680273 -0.0039046917 0.0032896926 -0.0044873036 0.003627665 -0.003070222 0.0038821863 -0.0030762963 -0.0031090397 -0.0040184855 0.0002975686 -0.0017276256 0.0044711847 -0.004773873 -0.0008906296 -0.0046973964 0.0036630314 0.0023180752 -0.0044811517 0.0032479812 -0.0017171096 0.0038249893 -0.0036718482 0.004367159 -0.0049631926 0.0046843844 0.00022081152 -0.0035620674 0.0016630309 0.0028407604 -0.0015280652 0.00047514128 -0.0042467164 -0.00012569838 0.00042573563 -0.003944579 0.002610195 0.003375727 0.0040318985 -0.0004383418 0.002561629 -0.0015003799 0.0044384967 -0.0026146807 -0.00112292 0.0016336582 -0.0047084833 -0.0013816121 0.0025631427 -0.0002974608 0.0022454453 -0.002938378 -0.0017867471 -0.001765166 -0.0007171896 0.004795757 0.003866611 0.0048840777 -0.0027615705 0.0041542505 -0.0048767794 0.0012753749 0.0022213452 0.0032207617
u -0.004325614 -0.0042830333 -0.00096860476 0.0003678452 0.0017599452 -0.0024914672 -0.004011034 -0.00081865716 0.0016741304 -0.0019078015 -0.004668079 0.0038075412 0.00064245815 0.0002643627 -0.0005913793 -0.004039825 -0.0016083673 -0.0007531074 0.0013710809 -0.00070152676 0.0035344346 0.000934501 -0.00012899762 -0.0013660609 -0.0037913357 0.0020549162 -0.002526984 0.0020794566 -0.0010570043 -0.0017477747 -0.000108857115 0.004833023 -0.003967213 -0.0016147253 0.0045926864 0.0030691705 0.0004650923 0.0029356657 0.0024872352 0.00027667984 -0.0037022536 -0.0030054133 0.0036945725 -0.003671799 -0.0022354713 0.0039348956 -0.0047032037 0.0027595381 -0.00016778844 0.00214379 0.00095495064 0.0025962112 0.0025445737 0.0019575357 0.0031665266 -0.0038746777 -0.0044349907 0.004869115 0.000764592 -0.0048592063 -0.0030145983 -0.0032431844 -0.0038878743 0.0011741216 0.00066377246 0.0007458534 0.0019261055 0.0012810042 -0.0020119636 0.004924763 -0.004679871 -0.002547239 0.000105700456 0.0020358774 0.0029328896 0.0026760397 -0.00051382807 0.004447108 0.000978748 0.0021917329 -0.0027265756 -0.0049344753 0.00359878 -0.0026507308 -0.0017510367 0.002307943 0.0027734137 0.00066415855 -0.0021220397 0.00159137 -0.00310229 0.003072255 -0.00011953979 -0.002082863 0.002742734 -0.0039188964 -0.00318801 -0.002681383 0.00499296 0.0010746653
s 0.0032131772 -0.0012785379 -0.0043842928 -0.0005189623 0.0028354875 0.0034018822 0.0025278293 -0.0012143597 -0.004046263 -0.0041077756 -0.0049395044 -0.003366722 0.0038220242 0.0034133173 -0.001012237 0.0027843227 -0.0037337898 -0.001000233 0.004739424 -0.00442799 0.00022233788 -0.0034300762 0.003715196 0.00021882336 0.0013681053 -0.0049450975 0.001521576 -0.002444799 -0.0029758373 0.0017212785 0.0027223283 0.004733231 0.00016947088 0.0037012417 0.0021069278 -0.0024092933 -9.725452e-05 -5.762457e-05 -0.0024757083 -0.00030919118 -0.00010144518 -0.0034295833 0.0018906144 -0.0017167571 0.0005894668 -0.0045918967 0.0034082432 -0.003882819 -0.00069750607 0.00026769735 -0.0026879092 -0.003093138 0.0043998165 -0.002590934 -0.0020903184 -0.0015555206 0.004868781 -0.00027315802 -0.004057271 0.0022263792 -0.0043566115 0.003011983 0.0031205937 0.004880864 0.0032258665 0.0011135243 -0.0022855597 0.0023828777 -0.0008946197 -0.0005320148 -0.002830744 0.0035948802 -0.0038151762 -0.00066136685 0.00021571173 -0.0030983991 -0.004868107 0.0011299853 0.0018316234 0.00020571225 0.00458021 0.004060996 0.004860061 0.0007211297 -0.0021057052 -0.00028383435 -0.0016048136 -0.0035378253 0.00072847964 0.00071159535 0.0024709674 0.0028902623 0.0047374065 0.0035543353 -0.0018441627 -0.0017890696 0.0011380629 -0.0033412932 0.0011516687 0.0021399676
. 0.004395727 0.0017133681 -4.090453e-05 -0.0022536817 0.0025152755 -0.0028246671 -0.004039748 -0.0010157507 0.0014516695 0.0020743317 0.004124728 0.004508441 0.0038905845 0.0026695535 -0.002916651 -0.0026286202 -0.00066296704 -0.00014006927 0.0031223942 0.0021790545 -0.0020921933 0.0015402838 0.0035862874 -0.004178798 0.0045255343 0.0010702253 0.0022152355 0.0032790625 -0.0005487843 0.0035779628 0.004635053 0.001134725 0.0035639391 -0.0020312143 -0.0021922449 -0.0013080444 -0.0021091255 0.0024966672 0.0037781561 0.0014763535 0.004209144 -0.001355255 0.0028201763 -0.000614301 0.0024949287 0.0029846595 0.0037798588 -0.0007219423 0.004023741 -0.004757895 0.0037275841 -0.0010030079 -0.0004957383 -0.00089771894 0.00058358925 0.0017231305 -0.0024659669 -0.004523449 0.0005506535 -0.0016985965 0.0041471426 0.0016922146 0.0022735777 -0.0019849378 -0.0003584468 -0.0046248455 0.00067759963 -0.00077050825 -0.00071027374 -0.0026823499 0.0048674433 -0.0031284622 0.0024901717 -0.0012404795 -0.0034434756 -0.0044937884 0.0027442146 -0.004128333 0.0046477574 -0.00032729996 0.00012667292 0.0014108955 -0.0030868237 0.0035999888 0.0038044513 -0.0021340693 0.0041373693 -0.0045671086 -0.0031263314 0.0010414274 -0.0033904375 -0.0033868283 -0.004035459 0.0034231513 0.004354002 0.0027493713 -0.0021305804 -0.0028210431 -0.0045930976 0.0041000843
x -0.0046769655 0.00066777173 0.0005000493 0.0014741969 -1.2649616e-06 -0.0021762454 -0.004414647 -0.0031141238 -0.003589388 0.003671836 -0.004732744 -0.0006919917 -0.0036582146 -0.00020007821 0.0036312318 -0.00076593814 -0.004615962 0.0049100854 -0.004983634 -0.0045775156 -0.0033929276 0.0048343996 -0.0011865977 0.0031871318 -0.00319355 -0.0040587257 -0.0019318345 -0.004229494 -0.004330698 -0.0022056063 0.004868103 0.0011428912 0.004973572 0.004126685 -0.0011183302 -0.00019111394 0.0038113187 -0.0010341754 -0.00088035705 0.004270602 -0.004317826 -0.0033839487 -0.0040002246 -0.0026176109 0.0041538225 -3.1113723e-06 -0.0017606859 -0.00053490675 -0.0026003327 -0.0016157436 0.0037200209 0.004342765 0.0027833155 0.0045376285 0.0002404943 0.0016956512 0.0011486056 -0.0009847028 -0.00074243685 -0.0008459751 -0.0036406966 -0.002224901 -0.0016844921 -0.0037964294 -0.0021251664 -0.0012857697 -0.0016916593 -0.0015865932 -0.0014605528 -0.003129256 0.0044187517 -0.00055315957 -0.003919591 0.001585156 -0.0040283655 -0.00069686817 0.0030410974 0.0041869027 0.000885918 0.00085714436 -0.0046448396 0.0038200873 0.0029614852 -0.004674424 -0.0015329842 -0.0049259863 -0.0013289475 0.0045327777 -0.0003188435 0.0037724858 -0.004065734 2.992142e-05 0.0043353317 -0.004211732 -0.0010440291 -0.0026122376 -0.0013006898 0.0021429004 0.003144336 0.004838257
